7.873806912828128    8.173810194397584    4.797251151520753    -14.540187061019747    -17.240707900323766    9.1335512444599
-0.41895031926149323    0.8722152421202952    0.18782562654012963    -2.3571867146532752    -6.4965203020353055    3.7213918585037975
-2.401653549671449    -0.20260100167950307    0.5260204263952403    -0.8709087462651324    0.5805008410363008    14.06732114764394
0.6891052321971479    -0.15649075853776562    0.6676150508699631    -0.8488417912047382    -8.138576035042043    19.953466824838323
0.9044130141122368    1.2087444112514    -0.9022090208334426    -2.443219838136605    5.929165104143874    -4.405560218526065
1.1097996259551728    0.05717072001277326    -0.5140718338016117    6.5840608772829095    -0.2649635751899522    -9.377631947530308
-3.0639371740076573    2.494233450985535    -1.537848638481063    -0.5057766538834136    -0.7900579287760932    4.454797054464073
-0.8731082164709864    1.5478932862423673    0.32789658905587366    -3.2061302067730124    0.742506255132464    7.512292695842178
-1.0176982267949692    0.04675957746482187    0.7248289772469276    2.4406703138432317    0.027047941284900498    -15.078042508100262
-0.6594651788554883    -1.0771785814129702    0.9171477207498783    2.6300182641947183    -8.697576630529664    4.96676267676305
3.0087901777423904    -3.2769383296581984    -8.588029212955732    5.857114732522757    1.1607170475494535    -12.599072279520936
-1.1685448783147403    -0.046841906041981296    0.4289340806733099    -6.466345042617014    0.26072138361410363    9.671879646696821
-3.2687825638083527    2.3692786373568056    -3.350124242370718    -10.672431973326427    1.2644922034809087    -3.772227579690096
9.078246443625162    -0.5982905260893784    -30.323792053906512    -0.20908903783647276    -2.0368035896607255    8.657670230194098
-2.2945175446502386    1.838487417592828    -11.008628376232489    -0.9248104902302351    -0.15967019694693294    32.09522075264713
1.4745268864503327    -0.982890713927906    2.135646883681129    -0.8037430032287627    0.045439046511883414    -3.5296299896076313
0.3646323471029432    -0.611814720998553    -0.27121089744478005    1.5181575838780563    0.6677589393554888    1.8484547779174618
-0.5628671663751088    0.6667613831500994    0.8389603310414783    -3.5187676473543568    -0.2930498446193253    -5.674120493337385
1.8728948487533355    -0.529315259314972    2.7959588167332887    2.7197308781651475    0.9630427516012532    -11.41899990394321
