7.9037322566326145    8.203434993839227    4.8220889748833855    -14.514490446637781    -17.222042120906984    9.14457368688432
-0.38708742902336946    0.904075022974824    0.1979025858428538    -2.356373340045346    -6.4970411079660115    3.720886584177699
-2.3524055676506475    -0.1592873221430174    0.4451821689024665    -0.8463892716836355    0.5088393822570824    14.074823746393768
0.7537184476733739    -0.09865390906329097    0.6314027554018766    -0.8205783520620963    -8.119902757020643    19.959061864871938
0.9000976353263319    1.2159676036930747    -0.938183850978842    -2.479144732595266    5.884521220660554    -4.434451211316971
1.1226427282440223    0.049086336063966146    -0.5283258734528326    6.656715058755636    -0.2692455327698145    -9.336439761232532
-3.0150923224017467    2.5427974861873626    -1.5568498803330428    -0.4155366845444103    -0.42121730885644393    4.523254219542249
-0.882484251595858    1.5459402661517305    0.23911411985859907    -3.2727018352291757    0.5769430359776786    7.497013772184485
-1.0183254154148693    0.04584195309460748    0.7330417986710132    2.441047865801063    0.0278361623269003    -15.077821614261607
-0.6330564017910256    -1.0453854954436164    0.9235065532076084    2.6249127237083667    -8.712246393746721    4.956737706028282
3.113313057271441    -3.183793273663206    -8.562510994289983    5.909206395122135    1.2755742730198667    -12.585625503314347
-1.163132545876647    -0.06154399675960007    0.3977993192728132    -6.395266488540388    0.2561312095387315    9.711140738329204
-3.2208278679510367    2.410511131171699    -3.3389107680667087    -10.672897414547359    1.3826375361701935    -3.7738628814283226
9.036556889551095    -0.6377684402199513    -30.334413733466135    -0.21349757221140667    -1.932929063742267    8.67586188852604
-2.2432920935367573    1.8729242868977778    -10.945547235027856    -0.8789666327430266    0.03454406958410271    32.120246830551004
1.4645248716149593    -0.9898612981918703    2.040606491174609    -0.8749713838785113    0.01116548127998131    -3.5750866921634987
0.35168637314999157    -0.6208480018898986    -0.3017361029502872    1.516171563881524    0.6433608981364555    1.8351571670582216
-0.5578088843507688    0.6678306839336979    0.8749825754643584    -3.5183458034228305    -0.2584216438838014    -5.668414341062429
1.8176854109059162    -0.568889047082557    2.74260525962722    2.7123244504322805    0.8607024811117996    -11.449343891270109
