7.898274779400929    8.198320654967121    4.816755311884882    -14.517378167577487    -17.226816777166544    9.14310621123869
-0.3881628328462504    0.902986377758234    0.19761808510376028    -2.356362982165454    -6.496990931453221    3.7209359489259697
-2.3557645992496896    -0.16221981541828617    0.4451873927787691    -0.8479527550063632    0.5098514355811987    14.074260312008663
0.7487457371255126    -0.103027082783651    0.6286415243020149    -0.8230004638254793    -8.122909314265595    19.958077448565167
0.8996232742721985    1.2151153132470536    -0.9372900190900215    -2.4782904721648173    5.886090455952643    -4.433443032851018
1.1211900731982705    0.04837854899188627    -0.5281396441610833    6.654041486469716    -0.2704139109991905    -9.337952613701502
-3.017348079649648    2.5402725643499657    -1.5564931098839168    -0.4196060373948406    -0.430414485870352    4.521332469364961
-0.8833336803049464    1.545113112871339    0.23974918607082665    -3.271414913282712    0.5838283811750454    7.497189874547203
-1.0185017375309606    0.04577219562137935    0.7314734567907342    2.4404012139132867    0.026851596105968933    -15.078009800519224
-0.6346597444523497    -1.0471311006407609    0.9230099557628397    2.6246575473086597    -8.711775821402364    4.957013661169825
3.1102998420898236    -3.1864453919976943    -8.563201456797767    5.907881627811011    1.2714113893318975    -12.586017804190014
-1.1639411472005434    -0.06168025498701873    0.3991299198229489    -6.397792548849025    0.2554634187790321    9.709761947797857
-3.2243211131949847    2.407459404935684    -3.3397017689506803    -10.67288176965195    1.37422609348735    -3.774529254945027
9.036665899881243    -0.6376201917454548    -30.33438658031249    -0.21376363956464783    -1.9381878806150403    8.674833890492273
-2.2434829895369757    1.8730022509581445    -10.946486686313605    -0.8792385696017638    0.03221987852207361    32.11987821259671
1.4648660705119367    -0.9898003810507991    2.043682449674332    -0.8729331484516032    0.016348739043425535    -3.5735782124717255
0.3522997649139085    -0.6204073827781964    -0.300923010971588    1.5162066683671362    0.6439923982784806    1.835638943563728
-0.5581346641257574    0.6676917514463103    0.8730685689538138    -3.5183763569519293    -0.25979591710290295    -5.668707827673667
1.8208109568234465    -0.5666606609492257    2.7449510619150077    2.7128452264636844    0.8656179519308873    -11.447806984853889
