7.905596426411752    8.205214873787773    4.82385334859034    -14.513497604893676    -17.220434651068178    9.145039453123944
-0.38659315963835555    0.904571477723577    0.19803237076441924    -2.3563684369466964    -6.497053506429096    3.7208745749739967
-2.3508973403607567    -0.15802963953503665    0.44515689884101134    -0.845577946064799    0.5077207247870881    14.075080800249053
0.755164941436889    -0.09740877869194393    0.6322437206980768    -0.8198011777614166    -8.119034640523276    19.95934124065089
0.9003677525584751    1.2164096224095935    -0.9387468391450705    -2.479404197257005    5.883873339063962    -4.43485406510102
1.122039379968018    0.048318845253624385    -0.5299255256149844    6.6575834607367295    -0.2699020619784118    -9.336055096151041
-3.0140557914697705    2.5439337385279295    -1.5571066369506168    -0.413253664502939    -0.4180293716686873    4.5240714913802575
-0.8815954040076229    1.546885076950805    0.23864876397665644    -3.27310824020265    0.5735404837096738    7.497000281247428
-1.0183006985975533    0.045859904118931365    0.733308516554521    2.4411463315769777    0.02782834411821505    -15.077791949672505
-0.6321939316137497    -1.0444624179852844    0.9235871426925967    2.625178099658111    -8.712418819544112    4.956659072578284
3.1144495207752563    -3.182747683831901    -8.56233161119047    5.909730579133243    1.2763213845777803    -12.585541866257941
-1.1642812130234583    -0.06280044521250568    0.39535566489141744    -6.394516328741227    0.25489852634476723    9.711414431867137
-3.219396555800142    2.4118069343040407    -3.338538554388583    -10.672930954747924    1.3858966117230413    -3.7736215789854364
9.036341239703647    -0.638014813200379    -30.334469432373822    -0.2132504499646383    -1.9305401855402384    8.676358054803924
-2.2436066152147505    1.8725724522202218    -10.945494555659959    -0.879050904376948    0.034712066439964946    32.12027357039143
1.4642000617399173    -0.990065527271255    2.0388949582402076    -0.8756023781231265    0.0068751064712006095    -3.57588992940424
0.3512987557119056    -0.6211424416865376    -0.3021990723127487    1.516146022200961    0.6429559062478228    1.8349214399201297
-0.5577278468433604    0.6678368443158006    0.8758066042427074    -3.518332058087423    -0.25785925363079487    -5.668292100517144
1.8159713679718428    -0.5701385159265471    2.741490416466581    2.7121250823671823    0.8572972975953802    -11.450174102511292
