7.909713262125924    8.209036787953673    4.827548354422941    -14.510848445383074    -17.217286027697003    9.146269744290242
-0.38585722540092066    0.905322327600261    0.19824584291043243    -2.3563236239897307    -6.497153960038984    3.720774785565107
-2.3449666686835684    -0.1528099547154651    0.44624313639695307    -0.8426679761245428    0.5084397083579428    14.076156038133664
0.7625107443379106    -0.09098959675769852    0.6369020742069128    -0.8165383026552208    -8.11432593333949    19.960897946659212
0.901027278473244    1.217365167625861    -0.9397855490136877    -2.48010418852895    5.882362883182388    -4.435777473454719
1.1230978395337636    0.04862565172018415    -0.5309613192403251    6.659977631272323    -0.27061527041597383    -9.334673435206854
-3.0088536014072838    2.5490231971738293    -1.5564012795201085    -0.4073346894779855    -0.405972358197097    4.526909909143954
-0.8766776923888685    1.5512182606773226    0.24096150434930017    -3.270620063189894    0.5706630921306871    7.49799610993313
-1.0180674885427348    0.04595555726216862    0.7352500555918691    2.4419313437704204    0.029217598906787864    -15.077561190974924
-0.6303216930280731    -1.04253781165917    0.9240741170285915    2.6256061772848973    -8.71283348902773    4.956470275542131
3.1182479175315994    -3.17938860074131    -8.56166359125063    5.911217442187203    1.2808592371823504    -12.5850032709518
-1.1636568819958764    -0.06288146797665892    0.3933639256989649    -6.392207181169234    0.2537996616050942    9.712694684823699
-3.2168571063705107    2.4140532357657882    -3.3377363244884433    -10.672953600981788    1.393198826643051    -3.7730755373010547
9.036955246131582    -0.637538606535128    -30.33430386346215    -0.21238289172851546    -1.9233961583024983    8.677762308371046
-2.2416990348324934    1.8741249680441157    -10.943713035509658    -0.8777032993500956    0.036550269476442784    32.12097756365525
1.4721663112406167    -0.9827854610777034    2.0398323381545    -0.8720443933515625    0.00809230330856224    -3.57504570297882
0.35109930896301694    -0.6212513703208615    -0.3024797850198368    1.5164268632486744    0.6427416110523515    1.8345961217230518
-0.5575564706569555    0.667842228535225    0.8776252212324658    -3.5182722776007673    -0.2564660841422207    -5.668025548343375
1.8138256733216633    -0.5714973966402638    2.739569642207068    2.7118341737635143    0.8529533196914091    -11.451438495784009
