7.901796882949525    8.201585883104913    4.8201264370575885    -14.51553288231286    -17.223754492786068    9.14405091471709
-0.38729896067190445    0.9038509557971498    0.19786391476416207    -2.3563612542640766    -6.4969909792762    3.7209364205058
-2.3537785237255915    -0.16050798119628554    0.44500320899769874    -0.847114320948828    0.5090114908526422    14.074587459717767
0.7520448517218195    -0.10016475658431719    0.6306134231450531    -0.8214034223510354    -8.120822087500757    19.958762904031286
0.9000839650838813    1.2158018416180225    -0.9377103659525444    -2.478723343364412    5.885142304622686    -4.434038823719879
1.1219629353988614    0.048683893345069826    -0.5287254440396334    6.655676677984297    -0.2698564217296578    -9.337037662616767
-3.015898806886207    2.541880535361385    -1.556734195627259    -0.4173051819252656    -0.42424305810620727    4.522546933994394
-0.8829864749162782    1.545542757489353    0.2392774665841439    -3.272760009534469    0.578692805386364    7.496927211569678
-1.018366666811864    0.045828132965595354    0.7326869456047337    2.440888124024551    0.027671297347156464    -15.077867271310819
-0.6335220629743601    -1.045911238348232    0.9234338922155807    2.6248885221014966    -8.712055670750773    4.95686124923887
3.1123260059121933    -3.1847142008108387    -8.562605160049866    5.90896536198555    1.2747297148408556    -12.585672916255044
-1.163568593744682    -0.06173123935666512    0.397795574428496    -6.396238171292592    0.255723142242703    9.710597548464433
-3.2224485782237893    2.4091429609442945    -3.3392813551393705    -10.672884746164968    1.378792141368204    -3.774204514914555
9.036712921322541    -0.6376195647749812    -30.334367022731506    -0.2134888900505354    -1.9348190259419065    8.67551319204059
-2.243412326154211    1.872842096815112    -10.94594493055764    -0.8790253774545609    0.033874324864370836    32.12009699603868
1.4648054548180078    -0.9898012693682878    2.041741796396755    -0.8740543027142159    0.01383136209880685    -3.5743977430506457
0.3520123233520299    -0.6205877566126223    -0.30152472639878997    1.5161627195904035    0.6435330406697534    1.83534675718771
-0.5579490723982812    0.6677724152404729    0.874121776631558    -3.518368235519938    -0.2590504605902034    -5.6685430061475275
1.8190421753433723    -0.567903272100291    2.7434526570325084    2.7125648547815744    0.8630484455274652    -11.448701021181595
