7.905029962975949    8.204676711067156    4.823365475999548    -14.513829161894506    -17.22088425645837    9.144893545833547
-0.38677894112972566    0.9043862150794667    0.19797863442313976    -2.3563747750456563    -6.497056070977956    3.720871902583113
-2.3520609710502263    -0.15904622075749886    0.4450055558699312    -0.8460611727488392    0.5075619505028088    14.074880044245372
0.754632837955261    -0.0978814175028222    0.6318875193935605    -0.820068076998161    -8.11936024737747    19.95923514916617
0.900201765771666    1.2161986536122746    -0.9385247349650732    -2.479375820338632    5.884070320029941    -4.434743577363331
1.1223523173955054    0.04867265859178196    -0.5292479831363436    6.657292603037294    -0.2696038019605584    -9.336171172817828
-3.01439042147413    2.5435744327687404    -1.557018921227458    -0.41378755019526703    -0.418616175946145    4.523913772873463
-0.8818113325526435    1.5466368558493127    0.2391131790280818    -3.2726935159969637    0.5750028688867235    7.497083231992954
-1.018297842582644    0.04586235877186447    0.7333166267193802    2.4411500253325245    0.027941056943373316    -15.07779054949603
-0.6325546188638153    -1.044832814647772    0.9235667939745299    2.625014535059834    -8.71238880230727    4.956661332894761
3.114140579314284    -3.1830217948720625    -8.562397324253688    5.909541370325401    1.2762236416750714    -12.585558114493255
-1.1637712180609399    -0.06227007408460052    0.3963847472887274    -6.394773802537013    0.25539640003002234    9.711332547567185
-3.219784430234491    2.411463670732851    -3.3386556587546803    -10.672910505341493    1.3850542087690139    -3.7736753824500866
9.036414759104384    -0.6379272416911664    -30.334450756522596    -0.21326257530331916    -1.931165608629183    8.676235818823615
-2.2436168873463136    1.8725856842050965    -10.945604276050142    -0.8790776647120155    0.034675204135772436    32.120230386943696
1.4635789546138613    -0.9906215958875212    2.0392106741786034    -0.8756207397602298    0.007602032858087461    -3.5757853695175417
0.35137766619669636    -0.6210922147430521    -0.3020470188307713    1.5161463990030866    0.6430881959034442    1.834985995753299
-0.5577196077988769    0.6678653982801472    0.8756327494655384    -3.5183301463569325    -0.25798000696073586    -5.6683190045033145
1.816463359782013    -0.5697982669224901    2.74185697337142    2.7122288627225446    0.8585817167232227    -11.449886807713526
